//Numpy array shape [1, 14, 10]
//Min -12.158676147461
//Max 21.421567916870
//Number of zeros 105

#ifndef W3_H_
#define W3_H_

namespace hls4ml_model_emu_tmp_v {

q_separableconv1d_weight_t w3[140] = {-0.747334, 0.702269, 0.000000, -0.000000, -0.000000, 0.000000, -0.000000, -0.000000, 0.000000, -0.354459, -0.000000, 0.741986, 0.000000, -0.000000, -0.000000, 0.000000, -0.000000, -0.000000, 0.000000, -0.000000, 0.666398, -0.000000, 1.782177, 0.000000, 0.000000, 0.000000, 0.000000, 0.000000, -0.000000, 0.000000, -0.507285, -0.824039, 0.000000, 0.000000, -0.000000, 0.000000, 0.815467, -0.000000, 0.000000, 0.000000, 0.527890, -0.374573, -0.000000, -0.204630, -0.000000, -0.000000, 0.000000, -0.000000, 0.000000, 0.269180, 0.000000, -0.539904, -0.343111, -0.000000, -0.000000, -0.450593, -0.000000, -0.000000, -0.421502, -0.953499, 0.000000, -0.000000, 0.000000, 0.000000, 0.000000, 0.401734, 0.000000, 0.000000, -0.000000, -0.000000, -0.461659, -0.000000, 0.000000, 0.000000, 0.000000, 0.358270, 0.000000, 0.000000, -0.000000, 0.611354, -0.000000, -0.000000, 2.325714, -1.509191, 0.000000, -0.000000, 0.000000, 0.000000, 0.000000, -0.000000, -0.000000, 0.000000, 0.000000, -0.000000, -12.158676, 21.421568, -7.889483, -4.001877, 0.000000, 0.000000, 0.000000, 0.000000, -0.000000, -0.000000, 0.000000, 8.995255, -7.192988, -10.356142, -0.000000, -0.000000, 0.000000, -0.000000, -0.000000, -0.000000, 0.000000, -0.000000, 0.000000, 0.000000, 0.000000, -0.009309, -0.000000, -0.000000, 2.013749, -1.056600, -0.000000, 0.000000, 0.000000, -0.000000, -0.000000, 0.000000, -0.000000, 0.000000, 0.210786, -0.000000, -0.000000, 0.000000, -0.000000, 0.000000, -0.000000, 0.000000};

}


#endif
