//Numpy array shape [1, 10, 10]
//Min -1.326127529144
//Max 5.710216045380
//Number of zeros 75

#ifndef W6_H_
#define W6_H_

namespace hls4ml_model_emu_tmp_v {

q_separableconv1d_2_weight_t w6[100] = {0.000000, -0.000000, 0.000000, -0.000000, -0.000000, 0.000000, 0.000000, 0.000000, -0.643854, 0.000000, -0.000000, 0.486322, 0.000000, -0.000000, 1.044641, -0.000000, 0.000000, -0.000000, -0.702356, -0.000000, 0.000000, 0.970628, 0.000000, 0.000000, -0.000000, 0.000000, -0.000000, -0.000000, 0.000000, 0.000000, 2.067152, -0.000000, 0.000000, 0.000000, -1.326128, -0.000000, 0.000000, -0.737981, 0.000000, -0.000000, -0.000000, -0.000000, 0.000000, 5.647994, 0.000000, -0.599025, 0.000000, 0.000000, -0.000000, -0.000000, -0.053824, 1.194478, 0.000000, 0.000000, 1.965333, -0.627620, 2.526838, -0.000000, 0.000000, 0.000000, 0.950508, 0.777215, 0.000000, 0.000000, -0.000000, -0.000000, -0.000000, 1.192710, -0.000000, 0.000000, -0.000000, -0.000000, 0.000000, 5.710216, 2.343161, 0.557523, 3.986076, 0.000000, -0.000000, -0.000000, 0.000000, -0.000000, 0.000000, 0.000000, -0.000000, -0.000000, 0.000000, -1.223467, 0.993923, 0.000000, 0.000000, 0.000000, 0.000000, 0.000000, -0.000000, -0.000000, 0.000000, 0.000000, -0.895470, 0.000000};

}


#endif
